%YAML:1.0
---
opencv_ml_dtree:
   format: 3
   is_classifier: 1
   var_all: 32
   var_count: 31
   ord_var_count: 31
   cat_var_count: 1
   training_params:
      use_surrogates: 0
      max_categories: 5
      regression_accuracy: 1.0000000149011612e-01
      max_depth: 3
      min_sample_count: 3
      cross_validation_folds: 0
   global_var_idx: 1
   var_idx: [ 0, 1, 2, 3, 4, 5, 6, 7, 8, 9, 10, 11, 12, 13, 14, 15, 16,
       17, 18, 19, 20, 21, 22, 23, 24, 25, 26, 27, 28, 29, 30 ]
   var_type: [ 0, 0, 0, 0, 0, 0, 0, 0, 0, 0, 0, 0, 0, 0, 0, 0, 0, 0, 0,
       0, 0, 0, 0, 0, 0, 0, 0, 0, 0, 0, 0, 1 ]
   cat_ofs: [ 0, 0, 0, 0, 0, 0, 0, 0, 0, 0, 0, 0, 0, 0, 0, 0, 0, 0, 0, 0,
       0, 0, 0, 0, 0, 0, 0, 0, 0, 0, 0, 0, 0, 0, 0, 0, 0, 0, 0, 0, 0, 0,
       0, 0, 0, 0, 0, 0, 0, 0, 0, 0, 0, 0, 0, 0, 0, 0, 0, 0, 0, 0 ]
   class_labels: [ 0, 2, 3, 4, 5 ]
   missing_subst: [ 0., 0., 0., 0., 0., 0., 0., 0., 0., 0., 0., 0., 0.,
       0., 0., 0., 0., 0., 0., 0., 0., 0., 0., 0., 0., 0., 0., 0., 0.,
       0., 0., 0. ]
   nodes:
      -
         depth: 0
         value: 2.
         norm_class_idx: 1
         splits:
            - { var:0, quality:8.9377456665039062e+01,
                le:5.1500000000000000e+01 }
      -
         depth: 1
         value: 2.
         norm_class_idx: 1
         splits:
            - { var:0, quality:7.7526878356933594e+01,
                le:2.9500000000000000e+01 }
      -
         depth: 2
         value: 0.
         norm_class_idx: 0
         splits:
            - { var:5, quality:3.6337821960449219e+01,
                le:4.7799998521804810e-01 }
      -
         depth: 3
         value: 0.
         norm_class_idx: 0
      -
         depth: 3
         value: 2.
         norm_class_idx: 1
      -
         depth: 2
         value: 2.
         norm_class_idx: 1
         splits:
            - { var:1, quality:5.0150943756103516e+01, le:257. }
      -
         depth: 3
         value: 5.
         norm_class_idx: 4
      -
         depth: 3
         value: 2.
         norm_class_idx: 1
      -
         depth: 1
         value: 4.
         norm_class_idx: 3
         splits:
            - { var:19, quality:4.9262256622314453e+01,
                le:5.0000000000000000e-01 }
      -
         depth: 2
         value: 4.
         norm_class_idx: 3
         splits:
            - { var:5, quality:4.0577777862548828e+01,
                le:9.5274996757507324e-01 }
      -
         depth: 3
         value: 4.
         norm_class_idx: 3
      -
         depth: 3
         value: 3.
         norm_class_idx: 2
      -
         depth: 2
         value: 5.
         norm_class_idx: 4
         splits:
            - { var:6, quality:1.5666666984558105e+01,
                le:8.5000000000000000e+00 }
      -
         depth: 3
         value: 5.
         norm_class_idx: 4
      -
         depth: 3
         value: 2.
         norm_class_idx: 1
